|---   -------   ----   \-\  /-/   |-----  |        |
|   |     |     |    |   \ \/ /    |       |        |
|---      |     |    |   / /\ \    |-----  |        |
|   |     |     |    |  / /  \ \   |       |        |
|---   -------   ----  /-/    \-\  |-----  |------  |------

_Where technology comes into play._
